%YAML:1.0
my_svm: !!opencv-ml-svm
   svm_type: C_SVC
   kernel: { type:LINEAR }
   C: 2.2026465794806703e+04
   term_criteria: { epsilon:1.1920928955078125e-07, iterations:1000 }
   var_all: 200
   var_count: 200
   class_count: 2
   class_labels: !!opencv-matrix
      rows: 1
      cols: 2
      dt: i
      data: [ -1, 1 ]
   sv_total: 1
   support_vectors:
      - [ 7.41748838e-03, 7.41748838e-03, 1.01126678e-01, 3.51385415e-01,
          1.38584552e-02, 1.38584552e-02, 5.56203842e+00,
          -2.36295104e+00, 9.60919142e-01, 1.82750440e+00,
          9.94125187e-01, 1.24148166e+00, 2.39239018e-02,
          -1.54220974e+00, 3.90377712e+00, 0., 1.87052679e+00,
          -8.68146002e-01, 1.11929047e+00, -1.74323416e+00,
          3.72160643e-01, 5.51966548e-01, -3.02551508e-01,
          9.60919142e-01, -8.68146002e-01, 3.61568189e+00,
          4.80459571e-01, 8.58681381e-01, -4.78630811e-01,
          1.86080322e-01, 1.21102405e+00, -1.77400872e-01,
          -2.05121994e+00, 4.55413485e+00, 2.59612113e-01,
          1.46363115e+00, 2.22524665e-02, 2.87218809e-01, 3.06018186e+00,
          1.02844536e+00, 4.01948750e-01, -4.73398256e+00,
          -3.27495241e+00, -2.31908488e+00, 2.68989873e+00,
          3.17221791e-01, 1.72988689e+00, -1.00977409e+00,
          -1.10279095e+00, -3.26966691e+00, 4.19257355e+00,
          -4.72680950e+00, -4.41543150e+00, 1.90109420e+00,
          -1.84545422e+00, 4.88373071e-01, 4.32873487e+00,
          4.05114985e+00, 4.37878084e+00, 2.39268827e+00, 4.01948750e-01,
          -2.10596776e+00, 9.98880565e-01, 4.29491520e+00,
          9.51309502e-01, 4.65173721e+00, 5.20467520e+00, 3.41129208e+00,
          -4.78630811e-01, 1.30267465e+00, 3.19590747e-01,
          -3.69090843e+00, -4.31137276e+00, 8.87697637e-01,
          -6.95173740e-01, -4.28277254e-01, 3.50169826e+00, 0.,
          -1.87869513e+00, -2.85698152e+00, -5.78109980e-01,
          -3.66695619e+00, -5.52756675e-02, -6.80410713e-02,
          -4.37136173e+00, -8.68146002e-01, -1.70412433e+00,
          -1.89960718e+00, 2.93116140e+00, 8.92690659e-01,
          3.24438959e-01, 5.05633391e-02, 1.92530131e+00, 8.04441261e+00,
          2.20730877e-03, 1.38584552e-02, 5.07953739e+00, 2.22750902e+00,
          2.24797678e+00, 4.80459571e-01, -3.42640448e+00,
          7.22781777e-01, 1.85805750e+00, 7.25598526e+00,
          -2.05204487e+00, 4.85085344e+00, 2.17643666e+00,
          -4.30804670e-01, 2.82336497e+00, 1.32174596e-01,
          -2.24311614e+00, -7.42212415e-01, 4.10749960e+00,
          -5.92287779e+00, -3.23299430e-02, -5.15771583e-02,
          -4.78630811e-01, 2.20439148e+00, -1.35705382e-01,
          4.80459571e-01, -2.65342736e+00, 0., -9.75183773e+00,
          2.55784273e+00, -2.90531135e+00, 4.22221661e+00,
          1.93501160e-01, -1.93429148e+00, 2.54372478e+00,
          -3.41176271e-01, -3.83180082e-01, -8.94869518e+00,
          -1.55453944e+00, -7.16044331e+00, 5.69469452e-01,
          -7.62773609e+00, -3.83699894e+00, -5.88513911e-01,
          -4.31505585e+00, -8.68146002e-01, -2.72437143e+00,
          6.86910391e-01, -5.84457111e+00, 1.12699389e+00,
          7.04907990e+00, -5.43828917e+00, 0., -4.49464083e+00,
          -1.92921054e+00, 1.09463298e+00, -1.14954019e+00,
          8.96265268e-01, 9.64063764e-01, -1.65827006e-01,
          -1.89927280e+00, 4.80459571e-01, -3.77232015e-01,
          1.73323944e-01, 2.88275743e+00, -2.85678536e-01,
          -1.49786531e-03, -3.62178802e+00, -6.17766714e+00,
          2.53439522e+00, -5.29707575e+00, -2.27064538e+00,
          9.64273438e-02, -1.55933881e+00, -6.25468540e+00,
          -1.86946762e+00, -4.76743126e+00, -2.15671897e+00,
          2.33741260e+00, 1.47257555e+00, 4.45049331e-02, 2.98689246e+00,
          -9.49951947e-01, 2.86624551e+00, 2.79787564e+00,
          -7.66360164e-01, 8.15923735e-02, 3.95627499e-01,
          -7.63533354e+00, 3.39359730e-01, 2.80954194e+00,
          2.41675711e+00, 6.57905388e+00, 3.23207641e+00, 2.67555695e-02,
          -1.05643499e+00, 0., 1.40486360e+00, -5.61473556e-02,
          -3.03490400e+00, 6.09904528e+00, -5.52756675e-02,
          -3.06967497e+00, 3.13876605e+00, 7.91871846e-01,
          1.60926390e+00 ]
   decision_functions:
      -
         sv_count: 1
         rho: -7.4881709423889886e-01
         alpha: [ 1. ]
         index: [ 0 ]
